<?xml version="1.0"?>
<opencv_storage>
<stage17>
  <maxWeakCount>6</maxWeakCount>
  <stageThreshold>-1.4767849445343018e+00</stageThreshold>
  <weakClassifiers>
    <_>
      <internalNodes>
        0 -1 943 -500685510 334954641 1208483848 364857480 -532634974
        1653084170 17826185 1542004904</internalNodes>
      <leafValues>
        -7.7232140302658081e-01 6.4756941795349121e-01</leafValues></_>
    <_>
      <internalNodes>
        0 -1 2064 -528363185 -787414959 -1048510123 -242679792 8429954
        1074036736 -536288031 -4505384</internalNodes>
      <leafValues>
        -6.3596653938293457e-01 6.6482985019683838e-01</leafValues></_>
    <_>
      <internalNodes>
        0 -1 1551 -216534904 -674256374 -2147483648 1087089162
        1351062026 350715912 209748107 1510981643</internalNodes>
      <leafValues>
        -6.4663171768188477e-01 6.5194547176361084e-01</leafValues></_>
    <_>
      <internalNodes>
        0 -1 853 26264454 -515636928 33029 1116811776 -2144304973
        -1878876158 6575 -886912383</internalNodes>
      <leafValues>
        -6.3054579496383667e-01 6.9599103927612305e-01</leafValues></_>
    <_>
      <internalNodes>
        0 -1 2116 -645151528 -1052671996 16875617 822726785 2662435
        -2147417472 -2037710800 -241336184</internalNodes>
      <leafValues>
        -7.5340580940246582e-01 5.6778186559677124e-01</leafValues></_>
    <_>
      <internalNodes>
        0 -1 121 1342240522 -788418175 16842768 -787415039 -1451054197
        1073774634 16851339 1426831491</internalNodes>
      <leafValues>
        -6.7346024513244629e-01 6.4089876413345337e-01</leafValues></_></weakClassifiers></stage17>
</opencv_storage>
